
\data\
ngram 1=5
ngram 2=6
ngram 3=6

\1-grams:
-0.9030899869919435	1
-0.6020599913279624	2
-0.42596873227228116	3
-0.9030899869919435	4
-0.9030899869919435	5

\2-grams:
0.0	1 2
0.0	2 3
-0.47712125471966244	3 4
-0.47712125471966244	3 5
0.0	4 3
-0.47712125471966244	3 2

\3-grams:
0.0	1 2 3
0.0	3 4 3
0.0	3 2 3
-0.3010299956639812	2 3 5
-0.3010299956639812	2 3 4
0.0	4 3 2

\end\
