
\data\
ngram 1=6
ngram 2=6
ngram 3=6

\1-grams:
-0.8450980400142568	1	1.0
-0.6690067809585756	2	2.0
-0.5440680443502757	3	3.0
-0.8450980400142568	4	1.0
-0.8450980400142568	5	1.0
-1.146128035678238	<unk>

\2-grams:
-0.5440680443502757	1 2	1.0
-0.42596873227228116	2 3	2.0
-0.6532125137753437	3 2	1.0
-0.6532125137753437	3 4	1.0
-0.6532125137753437	3 5	1.0
-0.5440680443502757	4 3	1.0

\3-grams:
-0.5440680443502757	1 2 3	1.0
-0.6020599913279624	2 3 4	1.0
-0.6020599913279624	2 3 5	1.0
-0.5440680443502757	3 2 3	1.0
-0.5440680443502757	3 4 3	1.0
-0.5440680443502757	4 3 2	1.0

\end\
